<?xml version="1.0"?>
<opencv_storage>
<cascade>
  <stageType>BOOST</stageType>
  <featureType>HAAR</featureType>
  <height>24</height>
  <width>24</width>
  <stageParams>
    <boostType>GAB</boostType>
    <minHitRate>9.9989998340606689e-01</minHitRate>
    <maxFalseAlarm>5.0000000000000000e-01</maxFalseAlarm>
    <weightTrimRate>9.4999999999999996e-01</weightTrimRate>
    <maxDepth>1</maxDepth>
    <maxWeakCount>100</maxWeakCount></stageParams>
  <featureParams>
    <maxCatCount>0</maxCatCount>
    <featSize>1</featSize>
    <mode>BASIC</mode></featureParams>
  <stageNum>20</stageNum>
  <stages>
    <!-- stage 0 -->
    <_>
      <maxWeakCount>5</maxWeakCount>
      <stageThreshold>-6.9190979003906250e-01</stageThreshold>
      <weakClassifiers>
        <_>
          <internalNodes>
            0 -1 5 -4.2849067598581314e-02</internalNodes>
          <leafValues>
            -4.8186528682708740e-01 8.8679248094558716e-01</leafValues></_>
        <_>
          <internalNodes>
            0 -1 27 -1.1312173679471016e-02</internalNodes>
          <leafValues>
            -9.1805589199066162e-01 2.6788341999053955e-01</leafValues></_>
        <_>
          <internalNodes>
            0 -1 52 -2.4099759757518768e-02</internalNodes>
          <leafValues>
            -8.4314376115798950e-01 2.0864932239055634e-01</leafValues></_>
        <_>
          <internalNodes>
            0 -1 66 1.5622057020664215e-02</internalNodes>
          <leafValues>
            2.1302238106727600e-01 -8.9970970153808594e-01</leafValues></_>
        <_>
          <internalNodes>
            0 -1 74 -9.7504481673240662e-03</internalNodes>
          <leafValues>
            -8.3843326568603516e-01 2.8633970022201538e-01</leafValues></_></weakClassifiers></_>
    <!-- stage 1 -->
    <_>
      <maxWeakCount>6</maxWeakCount>
      <stageThreshold>-7.9993796348571777e-01</stageThreshold>
      <weakClassifiers>
        <_>
          <internalNodes>
            0 -1 117 -8.4728673100471497e-03</internalNodes>
          <leafValues>
            -4.4499999284744263e-01 9.3478262424468994e-01</leafValues></_>
        <_>
          <internalNodes>
            0 -1 40 2.0822042599320412e-02</internalNodes>
          <leafValues>
            3.1760138273239136e-01 -9.6428990364074707e-01</leafValues></_>
        <_>
          <internalNodes>
            0 -1 21 1.5872713178396225e-02</internalNodes>
          <leafValues>
            2.3549200594425201e-01 -8.9496481418609619e-01</leafValues></_>
        <_>
          <internalNodes>
            0 -1 113 3.1299586407840252e-03</internalNodes>
          <leafValues>
            -3.8592973351478577e-01 8.1593281030654907e-01</leafValues></_>
        <_>
          <internalNodes>
            0 -1 63 -7.4191419407725334e-03</internalNodes>
          <leafValues>
            8.0373829603195190e-01 -2.6482918858528137e-01</leafValues></_>
        <_>
          <internalNodes>
            0 -1 54 -1.4470861293375492e-02</internalNodes>
          <leafValues>
            9.1374748945236206e-01 -2.5727242231369019e-01</leafValues></_></weakClassifiers></_>
    <!-- stage 2 -->
    <_>
      <maxWeakCount>6</maxWeakCount>
      <stageThreshold>-8.8170689344406128e-01</stageThreshold>
      <weakClassifiers>
        <_>
          <internalNodes>
            0 -1 25 -3.0185783281922340e-02</internalNodes>
          <leafValues>
            7.3529410362243652e-01 -5.3932583332061768e-01</leafValues></_>
        <_>
          <internalNodes>
            0 -1 41 3.0032112263143063e-03</internalNodes>
          <leafValues>
            -3.0018007755279541e-01 8.2282441854476929e-01</leafValues></_>
        <_>
          <internalNodes>
            0 -1 42 1.3095843605697155e-03</internalNodes>
          <leafValues>
            -3.4498608112335205e-01 7.9155313968658447e-01</leafValues></_>
        <_>
          <internalNodes>
            0 -1 8 -4.4050790369510651e-02</internalNodes>
          <leafValues>
            -8.5046201944351196e-01 3.8099807500839233e-01</leafValues></_>
        <_>
          <internalNodes>
            0 -1 46 1.2726698769256473e-03</internalNodes>
          <leafValues>
            -3.7592634558677673e-01 7.5395792722702026e-01</leafValues></_>
        <_>
          <internalNodes>
            0 -1 71 3.7898939102888107e-02</internalNodes>
          <leafValues>
            4.0262866020202637e-01 -8.2529109716415405e-01</leafValues></_></weakClassifiers></_>
    <!-- stage 3 -->
    <_>
      <maxWeakCount>4</maxWeakCount>
      <stageThreshold>-8.0528330802917480e-01</stageThreshold>
      <weakClassifiers>
        <_>
          <internalNodes>
            0 -1 83 -2.7001997455954552e-02</internalNodes>
          <leafValues>
            -8.8292682170867920e-01 3.1010451912879944e-01</leafValues></_>
        <_>
          <internalNodes>
            0 -1 88 -5.4471455514431000e-03</internalNodes>
          <leafValues>
            8.8973999023437500e-01 -4.1530475020408630e-01</leafValues></_>
        <_>
          <internalNodes>
            0 -1 96 -1.1233887635171413e-03</internalNodes>
          <leafValues>
            8.1721150875091553e-01 -2.7042233943939209e-01</leafValues></_>
        <_>
          <internalNodes>
            0 -1 92 -1.1216686107218266e-03</internalNodes>
          <leafValues>
            8.0181294679641724e-01 -3.2426318526268005e-01</leafValues></_></weakClassifiers></_>
    <!-- stage 4 -->
    <_>
      <maxWeakCount>5</maxWeakCount>
      <stageThreshold>-8.5926276445388794e-01</stageThreshold>
      <weakClassifiers>
        <_>
          <internalNodes>
            0 -1 35 -3.9019918441772461e-01</internalNodes>
          <leafValues>
            -6.9784170389175415e-01 4.7663551568984985e-01</leafValues></_>
        <_>
          <internalNodes>
            0 -1 121 -8.9727248996496201e-03</internalNodes>
          <leafValues>
            8.7408459186553955e-01 -4.0841758251190186e-01</leafValues></_>
        <_>
          <internalNodes>
            0 -1 112 3.7540188059210777e-03</internalNodes>
          <leafValues>
            -2.5425043702125549e-01 8.8179147243499756e-01</leafValues></_>
        <_>
          <internalNodes>
            0 -1 68 -7.3988363146781921e-04</internalNodes>
          <leafValues>
            8.7371563911437988e-01 -2.8706464171409607e-01</leafValues></_>
        <_>
          <internalNodes>
            0 -1 7 -1.3172298669815063e-02</internalNodes>
          <leafValues>
            -3.4773024916648865e-01 8.6422336101531982e-01</leafValues></_></weakClassifiers></_>
    <!-- stage 5 -->
    <_>
      <maxWeakCount>6</maxWeakCount>
      <stageThreshold>-7.8360444307327271e-01</stageThreshold>
      <weakClassifiers>
        <_>
          <internalNodes>
            0 -1 11 -1.5890281647443771e-02</internalNodes>
          <leafValues>
            -4.6770027279853821e-01 8.4761905670166016e-01</leafValues></_>
        <_>
          <internalNodes>
            0 -1 106 4.5885015279054642e-03</internalNodes>
          <leafValues>
            -2.2706753015518188e-01 8.7655091285705566e-01</leafValues></_>
        <_>
          <internalNodes>
            0 -1 107 -1.3100018259137869e-03</internalNodes>
          <leafValues>
            6.7952555418014526e-01 -2.9180639982223511e-01</leafValues></_>
        <_>
          <internalNodes>
            0 -1 60 2.7055623941123486e-03</internalNodes>
          <leafValues>
            -2.2797270119190216e-01 7.7864944934844971e-01</leafValues></_>
        <_>
          <internalNodes>
            0 -1 1 4.6152314171195030e-03</internalNodes>
          <leafValues>
            -2.5524887442588806e-01 7.1756923198699951e-01</leafValues></_>
        <_>
          <internalNodes>
            0 -1 109 4.4315899722278118e-03</internalNodes>
          <leafValues>
            -2.8514069318771362e-01 7.3960453271865845e-01</leafValues></_></weakClassifiers></_>
    <!-- stage 6 -->
    <_>
      <maxWeakCount>7</maxWeakCount>
      <stageThreshold>-9.2418861389160156e-01</stageThreshold>
      <weakClassifiers>
        <_>
          <internalNodes>
            0 -1 115 1.3659073971211910e-02</internalNodes>
          <leafValues>
            -6.1006289720535278e-01 5.8620691299438477e-01</leafValues></_>
        <_>
          <internalNodes>
            0 -1 72 -8.9491317048668861e-03</internalNodes>
          <leafValues>
            2.5704982876777649e-01 -9.2728936672210693e-01</leafValues></_>
        <_>
          <internalNodes>
            0 -1 18 2.6042472571134567e-02</internalNodes>
          <leafValues>
            -3.3651632070541382e-01 7.2228473424911499e-01</leafValues></_>
        <_>
          <internalNodes>
            0 -1 79 1.0069154202938080e-02</internalNodes>
          <leafValues>
            2.6115849614143372e-01 -8.5503458976745605e-01</leafValues></_>
        <_>
          <internalNodes>
            0 -1 28 7.3930909857153893e-03</internalNodes>
          <leafValues>
            -3.3038094639778137e-01 6.5911602973937988e-01</leafValues></_>
        <_>
          <internalNodes>
            0 -1 22 5.6632482446730137e-03</internalNodes>
          <leafValues>
            -2.9554751515388489e-01 7.5120538473129272e-01</leafValues></_>
        <_>
          <internalNodes>
            0 -1 100 -2.9337285086512566e-03</internalNodes>
          <leafValues>
            -8.4712231159210205e-01 2.6769706606864929e-01</leafValues></_></weakClassifiers></_>
    <!-- stage 7 -->
    <_>
      <maxWeakCount>7</maxWeakCount>
      <stageThreshold>-1.0134439468383789e+00</stageThreshold>
      <weakClassifiers>
        <_>
          <internalNodes>
            0 -1 120 1.0400969535112381e-02</internalNodes>
          <leafValues>
            -4.1935482621192932e-01 8.6516851186752319e-01</leafValues></_>
        <_>
          <internalNodes>
            0 -1 36 -9.8893769085407257e-02</internalNodes>
          <leafValues>
            2.6394459605216980e-01 -9.6854752302169800e-01</leafValues></_>
        <_>
          <internalNodes>
            0 -1 102 2.5031953118741512e-03</internalNodes>
          <leafValues>
            -6.4883631467819214e-01 2.9175767302513123e-01</leafValues></_>
        <_>
          <internalNodes>
            0 -1 85 -1.6876902431249619e-02</internalNodes>
          <leafValues>
            -7.9113912582397461e-01 2.4865430593490601e-01</leafValues></_>
        <_>
          <internalNodes>
            0 -1 111 8.0266688019037247e-03</internalNodes>
          <leafValues>
            -2.7090570330619812e-01 7.7577102184295654e-01</leafValues></_>
        <_>
          <internalNodes>
            0 -1 91 1.5708277001976967e-02</internalNodes>
          <leafValues>
            2.4323526024818420e-01 -8.9879280328750610e-01</leafValues></_>
        <_>
          <internalNodes>
            0 -1 103 4.1512353345751762e-03</internalNodes>
          <leafValues>
            -3.3098182082176208e-01 7.7054172754287720e-01</leafValues></_></weakClassifiers></_>
    <!-- stage 8 -->
    <_>
      <maxWeakCount>5</maxWeakCount>
      <stageThreshold>-1.5052009820938110e+00</stageThreshold>
      <weakClassifiers>
        <_>
          <internalNodes>
            0 -1 15 -4.8224839568138123e-01</internalNodes>
          <leafValues>
            -8.3050847053527832e-01 4.0625000000000000e-01</leafValues></_>
        <_>
          <internalNodes>
            0 -1 84 -2.1938299760222435e-02</internalNodes>
          <leafValues>
            -7.4966669082641602e-01 2.9148703813552856e-01</leafValues></_>
        <_>
          <internalNodes>
            0 -1 50 3.3969640731811523e-02</internalNodes>
          <leafValues>
            2.1319487690925598e-01 -8.7095552682876587e-01</leafValues></_>
        <_>
          <internalNodes>
            0 -1 81 -1.8801119178533554e-02</internalNodes>
          <leafValues>
            -9.4035959243774414e-01 1.8695153295993805e-01</leafValues></_>
        <_>
          <internalNodes>
            0 -1 86 -3.3726275432854891e-03</internalNodes>
          <leafValues>
            8.2991451025009155e-01 -3.2517224550247192e-01</leafValues></_></weakClassifiers></_>
    <!-- stage 9 -->
    <_>
      <maxWeakCount>6</maxWeakCount>
      <stageThreshold>-6.7624336481094360e-01</stageThreshold>
      <weakClassifiers>
        <_>
          <internalNodes>
            0 -1 126 -7.0216737687587738e-02</internalNodes>
          <leafValues>
            -6.2917935848236084e-01 7.0552146434783936e-01</leafValues></_>
        <_>
          <internalNodes>
            0 -1 127 -1.2465206906199455e-02</internalNodes>
          <leafValues>
            8.6647826433181763e-01 -2.9459419846534729e-01</leafValues></_>
        <_>
          <internalNodes>
            0 -1 125 -2.8237483929842710e-03</internalNodes>
          <leafValues>
            6.9728612899780273e-01 -3.4262934327125549e-01</leafValues></_>
        <_>
          <internalNodes>
            0 -1 3 -3.2461544033139944e-03</internalNodes>
          <leafValues>
            -9.3799054622650146e-01 2.9940873384475708e-01</leafValues></_>
        <_>
          <internalNodes>
            0 -1 48 -2.3811120539903641e-02</internalNodes>
          <leafValues>
            -8.2636165618896484e-01 2.5487375259399414e-01</leafValues></_>
        <_>
          <internalNodes>
            0 -1 10 3.2090400345623493e-03</internalNodes>
          <leafValues>
            2.3336082696914673e-01 -8.6912375688552856e-01</leafValues></_></weakClassifiers></_>
    <!-- stage 10 -->
    <_>
      <maxWeakCount>4</maxWeakCount>
      <stageThreshold>-5.1992744207382202e-01</stageThreshold>
      <weakClassifiers>
        <_>
          <internalNodes>
            0 -1 39 -1.3689845800399780e-01</internalNodes>
          <leafValues>
            -6.2328767776489258e-01 4.4999998807907104e-01</leafValues></_>
        <_>
          <internalNodes>
            0 -1 34 -1.3721252325922251e-03</internalNodes>
          <leafValues>
            8.3086097240447998e-01 -3.5504639148712158e-01</leafValues></_>
        <_>
          <internalNodes>
            0 -1 33 4.5237508602440357e-03</internalNodes>
          <leafValues>
            -2.9627048969268799e-01 8.7791931629180908e-01</leafValues></_>
        <_>
          <internalNodes>
            0 -1 53 8.6393143283203244e-04</internalNodes>
          <leafValues>
            -2.3051227629184723e-01 7.5467711687088013e-01</leafValues></_></weakClassifiers></_>
    <!-- stage 11 -->
    <_>
      <maxWeakCount>6</maxWeakCount>
      <stageThreshold>-6.4886826276779175e-01</stageThreshold>
      <weakClassifiers>
        <_>
          <internalNodes>
            0 -1 93 -2.1504931151866913e-02</internalNodes>
          <leafValues>
            6.1538463830947876e-01 -5.5952382087707520e-01</leafValues></_>
        <_>
          <internalNodes>
            0 -1 76 -1.0719311237335205e-01</internalNodes>
          <leafValues>
            -7.9097956418991089e-01 2.5537464022636414e-01</leafValues></_>
        <_>
          <internalNodes>
            0 -1 122 -2.1935454569756985e-03</internalNodes>
          <leafValues>
            -9.1407966613769531e-01 1.7644721269607544e-01</leafValues></_>
        <_>
          <internalNodes>
            0 -1 16 9.0923001989722252e-03</internalNodes>
          <leafValues>
            -3.8429847359657288e-01 6.0596221685409546e-01</leafValues></_>
        <_>
          <internalNodes>
            0 -1 32 -1.9056256860494614e-03</internalNodes>
          <leafValues>
            -8.9659100770950317e-01 2.4217472970485687e-01</leafValues></_>
        <_>
          <internalNodes>
            0 -1 124 -1.3356912881135941e-02</internalNodes>
          <leafValues>
            7.8005558252334595e-01 -3.2294908165931702e-01</leafValues></_></weakClassifiers></_>
    <!-- stage 12 -->
    <_>
      <maxWeakCount>6</maxWeakCount>
      <stageThreshold>-1.3499339818954468e+00</stageThreshold>
      <weakClassifiers>
        <_>
          <internalNodes>
            0 -1 130 -1.4534014277160168e-02</internalNodes>
          <leafValues>
            -5.7798165082931519e-01 5.8787876367568970e-01</leafValues></_>
        <_>
          <internalNodes>
            0 -1 105 1.6504446975886822e-03</internalNodes>
          <leafValues>
            2.2336265444755554e-01 -8.7300598621368408e-01</leafValues></_>
        <_>
          <internalNodes>
            0 -1 67 -3.8723787292838097e-03</internalNodes>
          <leafValues>
            -8.2732039690017700e-01 2.0802575349807739e-01</leafValues></_>
        <_>
          <internalNodes>
            0 -1 70 -1.1311880312860012e-02</internalNodes>
          <leafValues>
            8.5940921306610107e-01 -2.7625551819801331e-01</leafValues></_>
        <_>
          <internalNodes>
            0 -1 64 -1.4539930969476700e-02</internalNodes>
          <leafValues>
            8.6299180984497070e-01 -2.2733804583549500e-01</leafValues></_>
        <_>
          <internalNodes>
            0 -1 104 2.5213561020791531e-03</internalNodes>
          <leafValues>
            3.3559900522232056e-01 -8.0884897708892822e-01</leafValues></_></weakClassifiers></_>
    <!-- stage 13 -->
    <_>
      <maxWeakCount>9</maxWeakCount>
      <stageThreshold>-8.7222111225128174e-01</stageThreshold>
      <weakClassifiers>
        <_>
          <internalNodes>
            0 -1 24 -4.5807637274265289e-02</internalNodes>
          <leafValues>
            6.3999998569488525e-01 -5.4970759153366089e-01</leafValues></_>
        <_>
          <internalNodes>
            0 -1 78 -1.3803976587951183e-02</internalNodes>
          <leafValues>
            -7.9499369859695435e-01 2.5094228982925415e-01</leafValues></_>
        <_>
          <internalNodes>
            0 -1 61 -5.6953807361423969e-03</internalNodes>
          <leafValues>
            -7.8872436285018921e-01 1.9519609212875366e-01</leafValues></_>
        <_>
          <internalNodes>
            0 -1 98 -1.3400833122432232e-03</internalNodes>
          <leafValues>
            -7.4953335523605347e-01 2.1622918546199799e-01</leafValues></_>
        <_>
          <internalNodes>
            0 -1 17 1.5809880569577217e-02</internalNodes>
          <leafValues>
            -2.8755420446395874e-01 6.8799048662185669e-01</leafValues></_>
        <_>
          <internalNodes>
            0 -1 23 -6.1372034251689911e-03</internalNodes>
          <leafValues>
            7.6297771930694580e-01 -2.3900589346885681e-01</leafValues></_>
        <_>
          <internalNodes>
            0 -1 45 7.4558388441801071e-03</internalNodes>
          <leafValues>
            -2.9953950643539429e-01 7.6525682210922241e-01</leafValues></_>
        <_>
          <internalNodes>
            0 -1 14 -2.2378549911081791e-03</internalNodes>
          <leafValues>
            -1. 2.3972676694393158e-01</leafValues></_>
        <_>
          <internalNodes>
            0 -1 59 5.2602840587496758e-03</internalNodes>
          <leafValues>
            -3.2761630415916443e-01 6.2936460971832275e-01</leafValues></_></weakClassifiers></_>
    <!-- stage 14 -->
    <_>
      <maxWeakCount>9</maxWeakCount>
      <stageThreshold>-8.5520535707473755e-01</stageThreshold>
      <weakClassifiers>
        <_>
          <internalNodes>
            0 -1 80 -6.5193260088562965e-03</internalNodes>
          <leafValues>
            9.4805192947387695e-01 -3.9759036898612976e-01</leafValues></_>
        <_>
          <internalNodes>
            0 -1 75 2.1784463897347450e-03</internalNodes>
          <leafValues>
            -2.7899426221847534e-01 6.6903805732727051e-01</leafValues></_>
        <_>
          <internalNodes>
            0 -1 95 4.6219276264309883e-03</internalNodes>
          <leafValues>
            -2.2060064971446991e-01 8.1736165285110474e-01</leafValues></_>
        <_>
          <internalNodes>
            0 -1 101 7.1698669344186783e-03</internalNodes>
          <leafValues>
            2.2612884640693665e-01 -8.8649070262908936e-01</leafValues></_>
        <_>
          <internalNodes>
            0 -1 73 4.2806733399629593e-03</internalNodes>
          <leafValues>
            -2.3279140889644623e-01 8.1234079599380493e-01</leafValues></_>
        <_>
          <internalNodes>
            0 -1 114 -5.3480393253266811e-03</internalNodes>
          <leafValues>
            6.8781244754791260e-01 -2.6271530985832214e-01</leafValues></_>
        <_>
          <internalNodes>
            0 -1 69 -1.0389075614511967e-02</internalNodes>
          <leafValues>
            8.1807094812393188e-01 -2.4340355396270752e-01</leafValues></_>
        <_>
          <internalNodes>
            0 -1 19 -8.7713394314050674e-03</internalNodes>
          <leafValues>
            8.3948057889938354e-01 -2.0506374537944794e-01</leafValues></_>
        <_>
          <internalNodes>
            0 -1 57 4.6758721582591534e-03</internalNodes>
          <leafValues>
            -1.8820723891258240e-01 8.1266140937805176e-01</leafValues></_></weakClassifiers></_>
    <!-- stage 15 -->
    <_>
      <maxWeakCount>10</maxWeakCount>
      <stageThreshold>-1.4796574115753174e+00</stageThreshold>
      <weakClassifiers>
        <_>
          <internalNodes>
            0 -1 94 -6.4492346718907356e-03</internalNodes>
          <leafValues>
            7.3469388484954834e-01 -4.1624364256858826e-01</leafValues></_>
        <_>
          <internalNodes>
            0 -1 31 7.9889316111803055e-03</internalNodes>
          <leafValues>
            2.9628542065620422e-01 -6.6860151290893555e-01</leafValues></_>
        <_>
          <internalNodes>
            0 -1 6 2.7226584032177925e-02</internalNodes>
          <leafValues>
            -2.9095786809921265e-01 6.7357462644577026e-01</leafValues></_>
        <_>
          <internalNodes>
            0 -1 116 1.5795752406120300e-03</internalNodes>
          <leafValues>
            -2.6433312892913818e-01 6.4503335952758789e-01</leafValues></_>
        <_>
          <internalNodes>
            0 -1 123 1.9635614007711411e-03</internalNodes>
          <leafValues>
            2.4245041608810425e-01 -9.4821548461914063e-01</leafValues></_>
        <_>
          <internalNodes>
            0 -1 30 -1.0356169193983078e-02</internalNodes>
          <leafValues>
            -7.3676455020904541e-01 2.1878544986248016e-01</leafValues></_>
        <_>
          <internalNodes>
            0 -1 9 8.6269378662109375e-03</internalNodes>
          <leafValues>
            -2.3363636434078217e-01 7.7308654785156250e-01</leafValues></_>
        <_>
          <internalNodes>
            0 -1 87 1.0767375351861119e-03</internalNodes>
          <leafValues>
            3.0574432015419006e-01 -5.7835114002227783e-01</leafValues></_>
        <_>
          <internalNodes>
            0 -1 89 -4.4451002031564713e-03</internalNodes>
          <leafValues>
            7.0186227560043335e-01 -2.5064077973365784e-01</leafValues></_>
        <_>
          <internalNodes>
            0 -1 44 8.7502505630254745e-03</internalNodes>
          <leafValues>
            -1.9996871054172516e-01 8.3386796712875366e-01</leafValues></_></weakClassifiers></_>
    <!-- stage 16 -->
    <_>
      <maxWeakCount>8</maxWeakCount>
      <stageThreshold>-1.0056222677230835e+00</stageThreshold>
      <weakClassifiers>
        <_>
          <internalNodes>
            0 -1 51 1.4191889204084873e-02</internalNodes>
          <leafValues>
            -4.1984733939170837e-01 7.3737370967864990e-01</leafValues></_>
        <_>
          <internalNodes>
            0 -1 128 -9.1306958347558975e-03</internalNodes>
          <leafValues>
            8.1442296504974365e-01 -2.1282669901847839e-01</leafValues></_>
        <_>
          <internalNodes>
            0 -1 129 -1.6948714852333069e-02</internalNodes>
          <leafValues>
            9.8476606607437134e-01 -2.0023150742053986e-01</leafValues></_>
        <_>
          <internalNodes>
            0 -1 49 -3.6678086034953594e-03</internalNodes>
          <leafValues>
            -8.7188822031021118e-01 2.6659002900123596e-01</leafValues></_>
        <_>
          <internalNodes>
            0 -1 26 -2.9601100832223892e-02</internalNodes>
          <leafValues>
            5.3496181964874268e-01 -3.2774099707603455e-01</leafValues></_>
        <_>
          <internalNodes>
            0 -1 82 2.7321171946823597e-03</internalNodes>
          <leafValues>
            2.3574422299861908e-01 -9.3686068058013916e-01</leafValues></_>
        <_>
          <internalNodes>
            0 -1 103 5.4478542879223824e-03</internalNodes>
          <leafValues>
            -2.7821743488311768e-01 7.1004790067672729e-01</leafValues></_>
        <_>
          <internalNodes>
            0 -1 105 -2.1534301340579987e-03</internalNodes>
          <leafValues>
            -7.4630385637283325e-01 2.4080957472324371e-01</leafValues></_></weakClassifiers></_>
    <!-- stage 17 -->
    <_>
      <maxWeakCount>10</maxWeakCount>
      <stageThreshold>-1.3349678516387939e+00</stageThreshold>
      <weakClassifiers>
        <_>
          <internalNodes>
            0 -1 43 5.6846775114536285e-03</internalNodes>
          <leafValues>
            -4.0594059228897095e-01 8.1818181276321411e-01</leafValues></_>
        <_>
          <internalNodes>
            0 -1 99 -5.1036062650382519e-03</internalNodes>
          <leafValues>
            7.3011034727096558e-01 -2.4228347837924957e-01</leafValues></_>
        <_>
          <internalNodes>
            0 -1 62 -8.5620507597923279e-03</internalNodes>
          <leafValues>
            -7.7711874246597290e-01 2.3516950011253357e-01</leafValues></_>
        <_>
          <internalNodes>
            0 -1 58 -5.8134924620389938e-03</internalNodes>
          <leafValues>
            7.7763968706130981e-01 -2.3611840605735779e-01</leafValues></_>
        <_>
          <internalNodes>
            0 -1 56 -1.2751092202961445e-02</internalNodes>
          <leafValues>
            -7.4010318517684937e-01 2.5982570648193359e-01</leafValues></_>
        <_>
          <internalNodes>
            0 -1 90 4.3713999912142754e-03</internalNodes>
          <leafValues>
            -2.9912629723548889e-01 7.6135957241058350e-01</leafValues></_>
        <_>
          <internalNodes>
            0 -1 108 -7.1362284943461418e-03</internalNodes>
          <leafValues>
            5.4042375087738037e-01 -3.2010298967361450e-01</leafValues></_>
        <_>
          <internalNodes>
            0 -1 97 -6.6156918182969093e-03</internalNodes>
          <leafValues>
            6.4556956291198730e-01 -2.4259917438030243e-01</leafValues></_>
        <_>
          <internalNodes>
            0 -1 119 -2.5867386721074581e-03</internalNodes>
          <leafValues>
            -9.7509503364562988e-01 2.0730172097682953e-01</leafValues></_>
        <_>
          <internalNodes>
            0 -1 118 -3.8871627766638994e-03</internalNodes>
          <leafValues>
            7.3962718248367310e-01 -2.9109382629394531e-01</leafValues></_></weakClassifiers></_>
    <!-- stage 18 -->
    <_>
      <maxWeakCount>7</maxWeakCount>
      <stageThreshold>-6.6470175981521606e-01</stageThreshold>
      <weakClassifiers>
        <_>
          <internalNodes>
            0 -1 37 -6.2078586779534817e-03</internalNodes>
          <leafValues>
            7.5280898809432983e-01 -3.9454093575477600e-01</leafValues></_>
        <_>
          <internalNodes>
            0 -1 12 2.1988600492477417e-02</internalNodes>
          <leafValues>
            -3.3751752972602844e-01 5.4156732559204102e-01</leafValues></_>
        <_>
          <internalNodes>
            0 -1 13 6.0886852443218231e-03</internalNodes>
          <leafValues>
            -2.3993378877639771e-01 8.9258027076721191e-01</leafValues></_>
        <_>
          <internalNodes>
            0 -1 110 2.6239454746246338e-03</internalNodes>
          <leafValues>
            3.3654758334159851e-01 -7.4701672792434692e-01</leafValues></_>
        <_>
          <internalNodes>
            0 -1 2 -1.1619086377322674e-02</internalNodes>
          <leafValues>
            -8.7041491270065308e-01 2.3048953711986542e-01</leafValues></_>
        <_>
          <internalNodes>
            0 -1 20 -7.5747687369585037e-03</internalNodes>
          <leafValues>
            7.0855098962783813e-01 -3.1797146797180176e-01</leafValues></_>
        <_>
          <internalNodes>
            0 -1 55 -6.7011923529207706e-03</internalNodes>
          <leafValues>
            -9.4801300764083862e-01 2.8004452586174011e-01</leafValues></_></weakClassifiers></_>
    <!-- stage 19 -->
    <_>
      <maxWeakCount>8</maxWeakCount>
      <stageThreshold>-9.7535628080368042e-01</stageThreshold>
      <weakClassifiers>
        <_>
          <internalNodes>
            0 -1 97 8.1293955445289612e-03</internalNodes>
          <leafValues>
            -3.9066338539123535e-01 7.8823530673980713e-01</leafValues></_>
        <_>
          <internalNodes>
            0 -1 0 2.3231314495205879e-02</internalNodes>
          <leafValues>
            -2.7838826179504395e-01 6.2261307239532471e-01</leafValues></_>
        <_>
          <internalNodes>
            0 -1 4 -2.0228674635291100e-02</internalNodes>
          <leafValues>
            6.7128932476043701e-01 -2.5869217514991760e-01</leafValues></_>
        <_>
          <internalNodes>
            0 -1 77 3.7219722289592028e-03</internalNodes>
          <leafValues>
            1.9142439961433411e-01 -9.4489550590515137e-01</leafValues></_>
        <_>
          <internalNodes>
            0 -1 65 3.4194812178611755e-03</internalNodes>
          <leafValues>
            1.8774262070655823e-01 -9.0313291549682617e-01</leafValues></_>
        <_>
          <internalNodes>
            0 -1 38 5.8540264144539833e-03</internalNodes>
          <leafValues>
            -2.5995212793350220e-01 7.5280886888504028e-01</leafValues></_>
        <_>
          <internalNodes>
            0 -1 47 -1.6517710173502564e-03</internalNodes>
          <leafValues>
            6.2331706285476685e-01 -2.5951904058456421e-01</leafValues></_>
        <_>
          <internalNodes>
            0 -1 29 1.7733730375766754e-02</internalNodes>
          <leafValues>
            2.5358575582504272e-01 -7.1500903367996216e-01</leafValues></_></weakClassifiers></_></stages>
  <features>
    <_>
      <rects>
        <_>
          0 0 10 5 -1.</_>
        <_>
          5 0 5 5 2.</_></rects>
      <tilted>0</tilted></_>
    <_>
      <rects>
        <_>
          0 3 4 4 -1.</_>
        <_>
          0 3 2 2 2.</_>
        <_>
          2 5 2 2 2.</_></rects>
      <tilted>0</tilted></_>
    <_>
      <rects>
        <_>
          0 6 24 4 -1.</_>
        <_>
          0 6 12 2 2.</_>
        <_>
          12 8 12 2 2.</_></rects>
      <tilted>0</tilted></_>
    <_>
      <rects>
        <_>
          0 10 8 2 -1.</_>
        <_>
          0 11 8 1 2.</_></rects>
      <tilted>0</tilted></_>
    <_>
      <rects>
        <_>
          0 14 6 10 -1.</_>
        <_>
          0 14 3 5 2.</_>
        <_>
          3 19 3 5 2.</_></rects>
      <tilted>0</tilted></_>
    <_>
      <rects>
        <_>
          0 19 24 4 -1.</_>
        <_>
          8 19 8 4 2.</_></rects>
      <tilted>0</tilted></_>
    <_>
      <rects>
        <_>
          0 20 14 3 -1.</_>
        <_>
          7 20 7 3 2.</_></rects>
      <tilted>0</tilted></_>
    <_>
      <rects>
        <_>
          0 22 21 1 -1.</_>
        <_>
          7 22 7 1 2.</_></rects>
      <tilted>0</tilted></_>
    <_>
      <rects>
        <_>
          1 5 20 10 -1.</_>
        <_>
          11 5 10 10 2.</_></rects>
      <tilted>0</tilted></_>
    <_>
      <rects>
        <_>
          1 10 2 7 -1.</_>
        <_>
          2 10 1 7 2.</_></rects>
      <tilted>0</tilted></_>
    <_>
      <rects>
        <_>
          1 10 8 2 -1.</_>
        <_>
          1 11 8 1 2.</_></rects>
      <tilted>0</tilted></_>
    <_>
      <rects>
        <_>
          2 0 18 2 -1.</_>
        <_>
          8 0 6 2 2.</_></rects>
      <tilted>0</tilted></_>
    <_>
      <rects>
        <_>
          2 0 19 4 -1.</_>
        <_>
          2 2 19 2 2.</_></rects>
      <tilted>0</tilted></_>
    <_>
      <rects>
        <_>
          2 6 2 4 -1.</_>
        <_>
          2 6 1 2 2.</_>
        <_>
          3 8 1 2 2.</_></rects>
      <tilted>0</tilted></_>
    <_>
      <rects>
        <_>
          2 10 4 2 -1.</_>
        <_>
          2 11 4 1 2.</_></rects>
      <tilted>0</tilted></_>
    <_>
      <rects>
        <_>
          2 10 21 12 -1.</_>
        <_>
          2 14 21 4 2.</_></rects>
      <tilted>0</tilted></_>
    <_>
      <rects>
        <_>
          3 0 12 4 -1.</_>
        <_>
          3 0 6 2 2.</_>
        <_>
          9 2 6 2 2.</_></rects>
      <tilted>0</tilted></_>
    <_>
      <rects>
        <_>
          3 0 6 6 -1.</_>
        <_>
          3 3 6 3 2.</_></rects>
      <tilted>0</tilted></_>
    <_>
      <rects>
        <_>
          3 0 17 4 -1.</_>
        <_>
          3 2 17 2 2.</_></rects>
      <tilted>0</tilted></_>
    <_>
      <rects>
        <_>
          3 3 10 2 -1.</_>
        <_>
          3 3 5 1 2.</_>
        <_>
          8 4 5 1 2.</_></rects>
      <tilted>0</tilted></_>
    <_>
      <rects>
        <_>
          3 4 2 8 -1.</_>
        <_>
          3 4 1 4 2.</_>
        <_>
          4 8 1 4 2.</_></rects>
      <tilted>0</tilted></_>
    <_>
      <rects>
        <_>
          3 6 3 14 -1.</_>
        <_>
          3 13 3 7 2.</_></rects>
      <tilted>0</tilted></_>
    <_>
      <rects>
        <_>
          3 7 2 8 -1.</_>
        <_>
          4 7 1 8 2.</_></rects>
      <tilted>0</tilted></_>
    <_>
      <rects>
        <_>
          3 9 2 6 -1.</_>
        <_>
          4 9 1 6 2.</_></rects>
      <tilted>0</tilted></_>
    <_>
      <rects>
        <_>
          3 18 19 6 -1.</_>
        <_>
          3 21 19 3 2.</_></rects>
      <tilted>0</tilted></_>
    <_>
      <rects>
        <_>
          3 20 17 4 -1.</_>
        <_>
          3 22 17 2 2.</_></rects>
      <tilted>0</tilted></_>
    <_>
      <rects>
        <_>
          3 20 18 4 -1.</_>
        <_>
          3 22 18 2 2.</_></rects>
      <tilted>0</tilted></_>
    <_>
      <rects>
        <_>
          4 4 8 6 -1.</_>
        <_>
          8 4 4 6 2.</_></rects>
      <tilted>0</tilted></_>
    <_>
      <rects>
        <_>
          4 7 2 9 -1.</_>
        <_>
          5 7 1 9 2.</_></rects>
      <tilted>0</tilted></_>
    <_>
      <rects>
        <_>
          4 7 16 5 -1.</_>
        <_>
          12 7 8 5 2.</_></rects>
      <tilted>0</tilted></_>
    <_>
      <rects>
        <_>
          4 7 18 2 -1.</_>
        <_>
          13 7 9 2 2.</_></rects>
      <tilted>0</tilted></_>
    <_>
      <rects>
        <_>
          4 9 20 3 -1.</_>
        <_>
          14 9 10 3 2.</_></rects>
      <tilted>0</tilted></_>
    <_>
      <rects>
        <_>
          4 11 3 2 -1.</_>
        <_>
          4 12 3 1 2.</_></rects>
      <tilted>0</tilted></_>
    <_>
      <rects>
        <_>
          4 14 2 4 -1.</_>
        <_>
          4 14 1 2 2.</_>
        <_>
          5 16 1 2 2.</_></rects>
      <tilted>0</tilted></_>
    <_>
      <rects>
        <_>
          4 15 2 2 -1.</_>
        <_>
          4 15 1 1 2.</_>
        <_>
          5 16 1 1 2.</_></rects>
      <tilted>0</tilted></_>
    <_>
      <rects>
        <_>
          5 0 10 24 -1.</_>
        <_>
          5 8 10 8 2.</_></rects>
      <tilted>0</tilted></_>
    <_>
      <rects>
        <_>
          5 4 9 10 -1.</_>
        <_>
          8 4 3 10 2.</_></rects>
      <tilted>0</tilted></_>
    <_>
      <rects>
        <_>
          5 6 2 4 -1.</_>
        <_>
          5 6 1 2 2.</_>
        <_>
          6 8 1 2 2.</_></rects>
      <tilted>0</tilted></_>
    <_>
      <rects>
        <_>
          5 7 2 6 -1.</_>
        <_>
          5 7 1 3 2.</_>
        <_>
          6 10 1 3 2.</_></rects>
      <tilted>0</tilted></_>
    <_>
      <rects>
        <_>
          5 7 9 10 -1.</_>
        <_>
          8 7 3 10 2.</_></rects>
      <tilted>0</tilted></_>
    <_>
      <rects>
        <_>
          5 12 10 6 -1.</_>
        <_>
          10 12 5 6 2.</_></rects>
      <tilted>0</tilted></_>
    <_>
      <rects>
        <_>
          5 16 4 2 -1.</_>
        <_>
          5 16 2 1 2.</_>
        <_>
          7 17 2 1 2.</_></rects>
      <tilted>0</tilted></_>
    <_>
      <rects>
        <_>
          5 17 2 2 -1.</_>
        <_>
          5 17 1 1 2.</_>
        <_>
          6 18 1 1 2.</_></rects>
      <tilted>0</tilted></_>
    <_>
      <rects>
        <_>
          5 19 4 2 -1.</_>
        <_>
          5 19 2 1 2.</_>
        <_>
          7 20 2 1 2.</_></rects>
      <tilted>0</tilted></_>
    <_>
      <rects>
        <_>
          5 20 10 2 -1.</_>
        <_>
          5 21 10 1 2.</_></rects>
      <tilted>0</tilted></_>
    <_>
      <rects>
        <_>
          6 5 2 10 -1.</_>
        <_>
          7 5 1 10 2.</_></rects>
      <tilted>0</tilted></_>
    <_>
      <rects>
        <_>
          6 8 2 2 -1.</_>
        <_>
          6 8 1 1 2.</_>
        <_>
          7 9 1 1 2.</_></rects>
      <tilted>0</tilted></_>
    <_>
      <rects>
        <_>
          6 8 1 4 -1.</_>
        <_>
          6 10 1 2 2.</_></rects>
      <tilted>0</tilted></_>
    <_>
      <rects>
        <_>
          6 8 7 12 -1.</_>
        <_>
          6 14 7 6 2.</_></rects>
      <tilted>0</tilted></_>
    <_>
      <rects>
        <_>
          7 0 2 9 -1.</_>
        <_>
          8 0 1 9 2.</_></rects>
      <tilted>0</tilted></_>
    <_>
      <rects>
        <_>
          7 1 6 22 -1.</_>
        <_>
          7 12 6 11 2.</_></rects>
      <tilted>0</tilted></_>
    <_>
      <rects>
        <_>
          7 2 10 2 -1.</_>
        <_>
          7 3 10 1 2.</_></rects>
      <tilted>0</tilted></_>
    <_>
      <rects>
        <_>
          7 7 12 7 -1.</_>
        <_>
          13 7 6 7 2.</_></rects>
      <tilted>0</tilted></_>
    <_>
      <rects>
        <_>
          7 8 2 2 -1.</_>
        <_>
          7 8 1 1 2.</_>
        <_>
          8 9 1 1 2.</_></rects>
      <tilted>0</tilted></_>
    <_>
      <rects>
        <_>
          7 22 10 2 -1.</_>
        <_>
          7 23 10 1 2.</_></rects>
      <tilted>0</tilted></_>
    <_>
      <rects>
        <_>
          8 0 4 7 -1.</_>
        <_>
          10 0 2 7 2.</_></rects>
      <tilted>0</tilted></_>
    <_>
      <rects>
        <_>
          8 1 3 12 -1.</_>
        <_>
          8 7 3 6 2.</_></rects>
      <tilted>0</tilted></_>
    <_>
      <rects>
        <_>
          8 3 3 2 -1.</_>
        <_>
          8 4 3 1 2.</_></rects>
      <tilted>0</tilted></_>
    <_>
      <rects>
        <_>
          8 6 3 2 -1.</_>
        <_>
          8 7 3 1 2.</_></rects>
      <tilted>0</tilted></_>
    <_>
      <rects>
        <_>
          8 7 8 2 -1.</_>
        <_>
          8 8 8 1 2.</_></rects>
      <tilted>0</tilted></_>
    <_>
      <rects>
        <_>
          8 11 2 2 -1.</_>
        <_>
          9 11 1 2 2.</_></rects>
      <tilted>0</tilted></_>
    <_>
      <rects>
        <_>
          8 16 4 8 -1.</_>
        <_>
          10 16 2 8 2.</_></rects>
      <tilted>0</tilted></_>
    <_>
      <rects>
        <_>
          8 16 8 6 -1.</_>
        <_>
          12 16 4 6 2.</_></rects>
      <tilted>0</tilted></_>
    <_>
      <rects>
        <_>
          8 21 9 2 -1.</_>
        <_>
          8 22 9 1 2.</_></rects>
      <tilted>0</tilted></_>
    <_>
      <rects>
        <_>
          8 22 8 2 -1.</_>
        <_>
          8 23 8 1 2.</_></rects>
      <tilted>0</tilted></_>
    <_>
      <rects>
        <_>
          9 1 2 8 -1.</_>
        <_>
          10 1 1 8 2.</_></rects>
      <tilted>0</tilted></_>
    <_>
      <rects>
        <_>
          9 16 10 8 -1.</_>
        <_>
          14 16 5 8 2.</_></rects>
      <tilted>0</tilted></_>
    <_>
      <rects>
        <_>
          9 18 4 5 -1.</_>
        <_>
          11 18 2 5 2.</_></rects>
      <tilted>0</tilted></_>
    <_>
      <rects>
        <_>
          9 19 2 2 -1.</_>
        <_>
          9 19 1 1 2.</_>
        <_>
          10 20 1 1 2.</_></rects>
      <tilted>0</tilted></_>
    <_>
      <rects>
        <_>
          9 19 6 2 -1.</_>
        <_>
          9 20 6 1 2.</_></rects>
      <tilted>0</tilted></_>
    <_>
      <rects>
        <_>
          9 21 7 2 -1.</_>
        <_>
          9 22 7 1 2.</_></rects>
      <tilted>0</tilted></_>
    <_>
      <rects>
        <_>
          10 6 14 14 -1.</_>
        <_>
          17 6 7 14 2.</_></rects>
      <tilted>0</tilted></_>
    <_>
      <rects>
        <_>
          10 15 3 3 -1.</_>
        <_>
          11 15 1 3 2.</_></rects>
      <tilted>0</tilted></_>
    <_>
      <rects>
        <_>
          11 0 3 2 -1.</_>
        <_>
          11 1 3 1 2.</_></rects>
      <tilted>0</tilted></_>
    <_>
      <rects>
        <_>
          11 1 4 22 -1.</_>
        <_>
          11 1 2 11 2.</_>
        <_>
          13 12 2 11 2.</_></rects>
      <tilted>0</tilted></_>
    <_>
      <rects>
        <_>
          11 5 2 2 -1.</_>
        <_>
          11 6 2 1 2.</_></rects>
      <tilted>0</tilted></_>
    <_>
      <rects>
        <_>
          11 11 12 4 -1.</_>
        <_>
          15 11 4 4 2.</_></rects>
      <tilted>0</tilted></_>
    <_>
      <rects>
        <_>
          11 14 2 7 -1.</_>
        <_>
          12 14 1 7 2.</_></rects>
      <tilted>0</tilted></_>
    <_>
      <rects>
        <_>
          11 14 6 10 -1.</_>
        <_>
          14 14 3 10 2.</_></rects>
      <tilted>0</tilted></_>
    <_>
      <rects>
        <_>
          11 15 6 9 -1.</_>
        <_>
          14 15 3 9 2.</_></rects>
      <tilted>0</tilted></_>
    <_>
      <rects>
        <_>
          11 18 3 2 -1.</_>
        <_>
          11 19 3 1 2.</_></rects>
      <tilted>0</tilted></_>
    <_>
      <rects>
        <_>
          12 0 1 6 -1.</_>
        <_>
          12 2 1 2 2.</_></rects>
      <tilted>0</tilted></_>
    <_>
      <rects>
        <_>
          12 0 2 7 -1.</_>
        <_>
          13 0 1 7 2.</_></rects>
      <tilted>0</tilted></_>
    <_>
      <rects>
        <_>
          12 6 7 14 -1.</_>
        <_>
          12 13 7 7 2.</_></rects>
      <tilted>0</tilted></_>
    <_>
      <rects>
        <_>
          12 9 8 12 -1.</_>
        <_>
          12 15 8 6 2.</_></rects>
      <tilted>0</tilted></_>
    <_>
      <rects>
        <_>
          12 11 6 11 -1.</_>
        <_>
          15 11 3 11 2.</_></rects>
      <tilted>0</tilted></_>
    <_>
      <rects>
        <_>
          13 20 4 2 -1.</_>
        <_>
          13 20 2 1 2.</_>
        <_>
          15 21 2 1 2.</_></rects>
      <tilted>0</tilted></_>
    <_>
      <rects>
        <_>
          14 1 2 5 -1.</_>
        <_>
          15 1 1 5 2.</_></rects>
      <tilted>0</tilted></_>
    <_>
      <rects>
        <_>
          14 19 6 2 -1.</_>
        <_>
          14 19 3 1 2.</_>
        <_>
          17 20 3 1 2.</_></rects>
      <tilted>0</tilted></_>
    <_>
      <rects>
        <_>
          14 20 4 1 -1.</_>
        <_>
          16 20 2 1 2.</_></rects>
      <tilted>0</tilted></_>
    <_>
      <rects>
        <_>
          15 2 4 2 -1.</_>
        <_>
          15 2 2 1 2.</_>
        <_>
          17 3 2 1 2.</_></rects>
      <tilted>0</tilted></_>
    <_>
      <rects>
        <_>
          15 9 8 10 -1.</_>
        <_>
          15 14 8 5 2.</_></rects>
      <tilted>0</tilted></_>
    <_>
      <rects>
        <_>
          15 18 2 2 -1.</_>
        <_>
          15 18 1 1 2.</_>
        <_>
          16 19 1 1 2.</_></rects>
      <tilted>0</tilted></_>
    <_>
      <rects>
        <_>
          15 18 6 6 -1.</_>
        <_>
          15 21 6 3 2.</_></rects>
      <tilted>0</tilted></_>
    <_>
      <rects>
        <_>
          15 19 4 2 -1.</_>
        <_>
          15 19 2 1 2.</_>
        <_>
          17 20 2 1 2.</_></rects>
      <tilted>0</tilted></_>
    <_>
      <rects>
        <_>
          16 4 4 2 -1.</_>
        <_>
          16 4 2 1 2.</_>
        <_>
          18 5 2 1 2.</_></rects>
      <tilted>0</tilted></_>
    <_>
      <rects>
        <_>
          16 5 2 2 -1.</_>
        <_>
          16 5 1 1 2.</_>
        <_>
          17 6 1 1 2.</_></rects>
      <tilted>0</tilted></_>
    <_>
      <rects>
        <_>
          16 9 2 7 -1.</_>
        <_>
          17 9 1 7 2.</_></rects>
      <tilted>0</tilted></_>
    <_>
      <rects>
        <_>
          16 10 3 2 -1.</_>
        <_>
          16 11 3 1 2.</_></rects>
      <tilted>0</tilted></_>
    <_>
      <rects>
        <_>
          16 13 2 4 -1.</_>
        <_>
          16 13 1 2 2.</_>
        <_>
          17 15 1 2 2.</_></rects>
      <tilted>0</tilted></_>
    <_>
      <rects>
        <_>
          16 13 8 2 -1.</_>
        <_>
          16 14 8 1 2.</_></rects>
      <tilted>0</tilted></_>
    <_>
      <rects>
        <_>
          16 15 6 6 -1.</_>
        <_>
          16 18 6 3 2.</_></rects>
      <tilted>0</tilted></_>
    <_>
      <rects>
        <_>
          16 18 8 6 -1.</_>
        <_>
          16 18 4 3 2.</_>
        <_>
          20 21 4 3 2.</_></rects>
      <tilted>0</tilted></_>
    <_>
      <rects>
        <_>
          17 7 2 4 -1.</_>
        <_>
          17 7 1 2 2.</_>
        <_>
          18 9 1 2 2.</_></rects>
      <tilted>0</tilted></_>
    <_>
      <rects>
        <_>
          17 10 7 2 -1.</_>
        <_>
          17 11 7 1 2.</_></rects>
      <tilted>0</tilted></_>
    <_>
      <rects>
        <_>
          17 13 7 2 -1.</_>
        <_>
          17 14 7 1 2.</_></rects>
      <tilted>0</tilted></_>
    <_>
      <rects>
        <_>
          17 14 2 4 -1.</_>
        <_>
          17 14 1 2 2.</_>
        <_>
          18 16 1 2 2.</_></rects>
      <tilted>0</tilted></_>
    <_>
      <rects>
        <_>
          17 15 2 2 -1.</_>
        <_>
          17 15 1 1 2.</_>
        <_>
          18 16 1 1 2.</_></rects>
      <tilted>0</tilted></_>
    <_>
      <rects>
        <_>
          18 3 6 4 -1.</_>
        <_>
          21 3 3 4 2.</_></rects>
      <tilted>0</tilted></_>
    <_>
      <rects>
        <_>
          18 4 2 6 -1.</_>
        <_>
          18 4 1 3 2.</_>
        <_>
          19 7 1 3 2.</_></rects>
      <tilted>0</tilted></_>
    <_>
      <rects>
        <_>
          18 8 6 2 -1.</_>
        <_>
          18 9 6 1 2.</_></rects>
      <tilted>0</tilted></_>
    <_>
      <rects>
        <_>
          18 9 2 6 -1.</_>
        <_>
          19 9 1 6 2.</_></rects>
      <tilted>0</tilted></_>
    <_>
      <rects>
        <_>
          18 11 2 5 -1.</_>
        <_>
          19 11 1 5 2.</_></rects>
      <tilted>0</tilted></_>
    <_>
      <rects>
        <_>
          18 15 2 2 -1.</_>
        <_>
          19 15 1 2 2.</_></rects>
      <tilted>0</tilted></_>
    <_>
      <rects>
        <_>
          18 15 2 6 -1.</_>
        <_>
          18 15 1 3 2.</_>
        <_>
          19 18 1 3 2.</_></rects>
      <tilted>0</tilted></_>
    <_>
      <rects>
        <_>
          18 16 6 8 -1.</_>
        <_>
          18 16 3 4 2.</_>
        <_>
          21 20 3 4 2.</_></rects>
      <tilted>0</tilted></_>
    <_>
      <rects>
        <_>
          18 17 2 2 -1.</_>
        <_>
          18 17 1 1 2.</_>
        <_>
          19 18 1 1 2.</_></rects>
      <tilted>0</tilted></_>
    <_>
      <rects>
        <_>
          18 21 6 3 -1.</_>
        <_>
          18 22 6 1 2.</_></rects>
      <tilted>0</tilted></_>
    <_>
      <rects>
        <_>
          19 7 2 2 -1.</_>
        <_>
          20 7 1 2 2.</_></rects>
      <tilted>0</tilted></_>
    <_>
      <rects>
        <_>
          19 8 5 2 -1.</_>
        <_>
          19 9 5 1 2.</_></rects>
      <tilted>0</tilted></_>
    <_>
      <rects>
        <_>
          19 9 2 6 -1.</_>
        <_>
          20 9 1 6 2.</_></rects>
      <tilted>0</tilted></_>
    <_>
      <rects>
        <_>
          19 9 2 14 -1.</_>
        <_>
          19 9 1 7 2.</_>
        <_>
          20 16 1 7 2.</_></rects>
      <tilted>0</tilted></_>
    <_>
      <rects>
        <_>
          19 10 5 2 -1.</_>
        <_>
          19 11 5 1 2.</_></rects>
      <tilted>0</tilted></_>
    <_>
      <rects>
        <_>
          19 15 5 2 -1.</_>
        <_>
          19 16 5 1 2.</_></rects>
      <tilted>0</tilted></_>
    <_>
      <rects>
        <_>
          20 7 2 8 -1.</_>
        <_>
          21 7 1 8 2.</_></rects>
      <tilted>0</tilted></_>
    <_>
      <rects>
        <_>
          20 13 2 2 -1.</_>
        <_>
          21 13 1 2 2.</_></rects>
      <tilted>0</tilted></_>
    <_>
      <rects>
        <_>
          21 3 3 18 -1.</_>
        <_>
          22 3 1 18 2.</_></rects>
      <tilted>0</tilted></_>
    <_>
      <rects>
        <_>
          21 9 2 7 -1.</_>
        <_>
          22 9 1 7 2.</_></rects>
      <tilted>0</tilted></_>
    <_>
      <rects>
        <_>
          21 10 2 4 -1.</_>
        <_>
          22 10 1 4 2.</_></rects>
      <tilted>0</tilted></_>
    <_>
      <rects>
        <_>
          22 8 2 10 -1.</_>
        <_>
          23 8 1 10 2.</_></rects>
      <tilted>0</tilted></_>
    <_>
      <rects>
        <_>
          23 3 1 18 -1.</_>
        <_>
          23 9 1 6 2.</_></rects>
      <tilted>0</tilted></_></features></cascade>
</opencv_storage>
