<?xml version="1.0"?>
<opencv_storage>
<stage12>
  <maxWeakCount>6</maxWeakCount>
  <stageThreshold>-1.3499339818954468e+00</stageThreshold>
  <weakClassifiers>
    <_>
      <internalNodes>
        0 -1 162167 -1.4534014277160168e-02</internalNodes>
      <leafValues>
        -5.7798165082931519e-01 5.8787876367568970e-01</leafValues></_>
    <_>
      <internalNodes>
        0 -1 151246 1.6504446975886822e-03</internalNodes>
      <leafValues>
        2.2336265444755554e-01 -8.7300598621368408e-01</leafValues></_>
    <_>
      <internalNodes>
        0 -1 106311 -3.8723787292838097e-03</internalNodes>
      <leafValues>
        -8.2732039690017700e-01 2.0802575349807739e-01</leafValues></_>
    <_>
      <internalNodes>
        0 -1 106721 -1.1311880312860012e-02</internalNodes>
      <leafValues>
        8.5940921306610107e-01 -2.7625551819801331e-01</leafValues></_>
    <_>
      <internalNodes>
        0 -1 98628 -1.4539930969476700e-02</internalNodes>
      <leafValues>
        8.6299180984497070e-01 -2.2733804583549500e-01</leafValues></_>
    <_>
      <internalNodes>
        0 -1 150816 2.5213561020791531e-03</internalNodes>
      <leafValues>
        3.3559900522232056e-01 -8.0884897708892822e-01</leafValues></_></weakClassifiers></stage12>
</opencv_storage>
