<?xml version="1.0"?>
<opencv_storage>
<stage4>
  <maxWeakCount>5</maxWeakCount>
  <stageThreshold>-8.5926276445388794e-01</stageThreshold>
  <weakClassifiers>
    <_>
      <internalNodes>
        0 -1 61099 -3.9019918441772461e-01</internalNodes>
      <leafValues>
        -6.9784170389175415e-01 4.7663551568984985e-01</leafValues></_>
    <_>
      <internalNodes>
        0 -1 156705 -8.9727248996496201e-03</internalNodes>
      <leafValues>
        8.7408459186553955e-01 -4.0841758251190186e-01</leafValues></_>
    <_>
      <internalNodes>
        0 -1 154263 3.7540188059210777e-03</internalNodes>
      <leafValues>
        -2.5425043702125549e-01 8.8179147243499756e-01</leafValues></_>
    <_>
      <internalNodes>
        0 -1 106447 -7.3988363146781921e-04</internalNodes>
      <leafValues>
        8.7371563911437988e-01 -2.8706464171409607e-01</leafValues></_>
    <_>
      <internalNodes>
        0 -1 13334 -1.3172298669815063e-02</internalNodes>
      <leafValues>
        -3.4773024916648865e-01 8.6422336101531982e-01</leafValues></_></weakClassifiers></stage4>
</opencv_storage>
