<?xml version="1.0"?>
<opencv_storage>
<stage2>
  <maxWeakCount>6</maxWeakCount>
  <stageThreshold>-8.8170689344406128e-01</stageThreshold>
  <weakClassifiers>
    <_>
      <internalNodes>
        0 -1 49278 -3.0185783281922340e-02</internalNodes>
      <leafValues>
        7.3529410362243652e-01 -5.3932583332061768e-01</leafValues></_>
    <_>
      <internalNodes>
        0 -1 69587 3.0032112263143063e-03</internalNodes>
      <leafValues>
        -3.0018007755279541e-01 8.2282441854476929e-01</leafValues></_>
    <_>
      <internalNodes>
        0 -1 69831 1.3095843605697155e-03</internalNodes>
      <leafValues>
        -3.4498608112335205e-01 7.9155313968658447e-01</leafValues></_>
    <_>
      <internalNodes>
        0 -1 18566 -4.4050790369510651e-02</internalNodes>
      <leafValues>
        -8.5046201944351196e-01 3.8099807500839233e-01</leafValues></_>
    <_>
      <internalNodes>
        0 -1 76276 1.2726698769256473e-03</internalNodes>
      <leafValues>
        -3.7592634558677673e-01 7.5395792722702026e-01</leafValues></_>
    <_>
      <internalNodes>
        0 -1 110477 3.7898939102888107e-02</internalNodes>
      <leafValues>
        4.0262866020202637e-01 -8.2529109716415405e-01</leafValues></_></weakClassifiers></stage2>
</opencv_storage>
