<?xml version="1.0"?>
<opencv_storage>
<stage19>
  <maxWeakCount>8</maxWeakCount>
  <stageThreshold>-9.7535628080368042e-01</stageThreshold>
  <weakClassifiers>
    <_>
      <internalNodes>
        0 -1 146657 8.1293955445289612e-03</internalNodes>
      <leafValues>
        -3.9066338539123535e-01 7.8823530673980713e-01</leafValues></_>
    <_>
      <internalNodes>
        0 -1 340 2.3231314495205879e-02</internalNodes>
      <leafValues>
        -2.7838826179504395e-01 6.2261307239532471e-01</leafValues></_>
    <_>
      <internalNodes>
        0 -1 11120 -2.0228674635291100e-02</internalNodes>
      <leafValues>
        6.7128932476043701e-01 -2.5869217514991760e-01</leafValues></_>
    <_>
      <internalNodes>
        0 -1 120149 3.7219722289592028e-03</internalNodes>
      <leafValues>
        1.9142439961433411e-01 -9.4489550590515137e-01</leafValues></_>
    <_>
      <internalNodes>
        0 -1 99359 3.4194812178611755e-03</internalNodes>
      <leafValues>
        1.8774262070655823e-01 -9.0313291549682617e-01</leafValues></_>
    <_>
      <internalNodes>
        0 -1 65564 5.8540264144539833e-03</internalNodes>
      <leafValues>
        -2.5995212793350220e-01 7.5280886888504028e-01</leafValues></_>
    <_>
      <internalNodes>
        0 -1 76278 -1.6517710173502564e-03</internalNodes>
      <leafValues>
        6.2331706285476685e-01 -2.5951904058456421e-01</leafValues></_>
    <_>
      <internalNodes>
        0 -1 55312 1.7733730375766754e-02</internalNodes>
      <leafValues>
        2.5358575582504272e-01 -7.1500903367996216e-01</leafValues></_></weakClassifiers></stage19>
</opencv_storage>
